<?xml version="1.0"?>
<opencv_storage>
<cascade>
  <stageType>BOOST</stageType>
  <featureType>LBP</featureType>
  <height>16</height>
  <width>16</width>
  <stageParams>
    <boostType>GAB</boostType>
    <minHitRate>9.9900001287460327e-01</minHitRate>
    <maxFalseAlarm>5.0000000000000000e-01</maxFalseAlarm>
    <weightTrimRate>9.4999999999999996e-01</weightTrimRate>
    <maxDepth>1</maxDepth>
    <maxWeakCount>100</maxWeakCount></stageParams>
  <featureParams>
    <maxCatCount>256</maxCatCount>
    <featSize>1</featSize></featureParams>
  <stageNum>14</stageNum>
  <stages>
    <!-- stage 0 -->
    <_>
      <maxWeakCount>7</maxWeakCount>
      <stageThreshold>-2.4575273990631104e+00</stageThreshold>
      <weakClassifiers>
        <_>
          <internalNodes>
            0 -1 4 -1 -65538 -65537 -196610 -1 -65537 -1 -1</internalNodes>
          <leafValues>
            -8.5755676031112671e-01 4.3333333730697632e-01</leafValues></_>
        <_>
          <internalNodes>
            0 -1 84 -1 -1 -65540 -36 -2 -66052 -66052 -58917132</internalNodes>
          <leafValues>
            -7.3743003606796265e-01 4.0006095170974731e-01</leafValues></_>
        <_>
          <internalNodes>
            0 -1 35 -274256086 -1 930034977 -16385 -16433 -1 2147450879
            -1048577</internalNodes>
          <leafValues>
            -5.8699846267700195e-01 4.8642808198928833e-01</leafValues></_>
        <_>
          <internalNodes>
            0 -1 120 1071464447 -212995 -5 -327692 -1073987588 -1114113
            -229380 -16990252</internalNodes>
          <leafValues>
            -5.5554091930389404e-01 5.1141226291656494e-01</leafValues></_>
        <_>
          <internalNodes>
            0 -1 102 -262401 -1342275592 -1048577 -1360068612 1878945597
            -2 -536936844 -285933964</internalNodes>
          <leafValues>
            -6.2784129381179810e-01 4.3487003445625305e-01</leafValues></_>
        <_>
          <internalNodes>
            0 -1 90 1995930879 2146401279 -270532609 -16842753 -9274628
            -1078002691 -9277444 -30375952</internalNodes>
          <leafValues>
            -4.9802768230438232e-01 4.4093021750450134e-01</leafValues></_>
        <_>
          <internalNodes>
            0 -1 167 -524509 -65556 -1152 -81922 -50331876 -32779
            2147384804 -185073665</internalNodes>
          <leafValues>
            -4.5963484048843384e-01 4.6690997481346130e-01</leafValues></_></weakClassifiers></_>
    <!-- stage 1 -->
    <_>
      <maxWeakCount>8</maxWeakCount>
      <stageThreshold>-2.1928393840789795e+00</stageThreshold>
      <weakClassifiers>
        <_>
          <internalNodes>
            0 -1 6 -1 -65538 -65537 -33751044 -1 -1 -1 -1</internalNodes>
          <leafValues>
            -8.6930298805236816e-01 1.8381112813949585e-01</leafValues></_>
        <_>
          <internalNodes>
            0 -1 11 -1 -65570 -269680642 -2826248 -1 -65602 -33751042
            -36372486</internalNodes>
          <leafValues>
            -7.5190150737762451e-01 2.6848584413528442e-01</leafValues></_>
        <_>
          <internalNodes>
            0 -1 74 -1610645505 1006436351 -65537 -9240577 -537624708
            -557057 -8880336 -26149004</internalNodes>
          <leafValues>
            -6.6430366039276123e-01 3.5876616835594177e-01</leafValues></_>
        <_>
          <internalNodes>
            0 -1 151 -1082130505 -1610809348 -1342193929 -1364262920
            -229379 -1 -33751052 -318963980</internalNodes>
          <leafValues>
            -5.9917056560516357e-01 3.6783462762832642e-01</leafValues></_>
        <_>
          <internalNodes>
            0 -1 144 934674303 -1078133251 1073217535 -1140916744
            -1644363779 -16908289 -198660 -1262734092</internalNodes>
          <leafValues>
            -5.7379817962646484e-01 3.7012618780136108e-01</leafValues></_>
        <_>
          <internalNodes>
            0 -1 160 -9439487 -9568387 -1079509191 -134742147
            -1208191488 -134348802 616038072 -1342717961</internalNodes>
          <leafValues>
            -4.3277773261070251e-01 4.8418790102005005e-01</leafValues></_>
        <_>
          <internalNodes>
            0 -1 21 -18874529 -285573252 -151064834 -16842766 1876381535
            1475701759 -98808 -159907993</internalNodes>
          <leafValues>
            -5.0098174810409546e-01 4.2224586009979248e-01</leafValues></_>
        <_>
          <internalNodes>
            0 -1 29 -537428067 -1360068609 -608253186 -1104478220
            1316949881 1597734783 -67928204 -93126841</internalNodes>
          <leafValues>
            -5.3173160552978516e-01 3.3850690722465515e-01</leafValues></_></weakClassifiers></_>
    <!-- stage 2 -->
    <_>
      <maxWeakCount>10</maxWeakCount>
      <stageThreshold>-2.5125401020050049e+00</stageThreshold>
      <weakClassifiers>
        <_>
          <internalNodes>
            0 -1 109 -2281 -1 -1 -1 -1 -1 -1 -1</internalNodes>
          <leafValues>
            -8.4418994188308716e-01 3.5895919799804688e-01</leafValues></_>
        <_>
          <internalNodes>
            0 -1 2 -1115394 -258 1213005788 -543293697 -1 -65537
            -538968070 -2097153</internalNodes>
          <leafValues>
            -7.0415508747100830e-01 2.7710589766502380e-01</leafValues></_>
        <_>
          <internalNodes>
            0 -1 156 -1082261633 -1074855940 -65 -1367670788 -67338276
            -277872643 -17301516 -285411340</internalNodes>
          <leafValues>
            -6.0657745599746704e-01 2.8397479653358459e-01</leafValues></_>
        <_>
          <internalNodes>
            0 -1 18 -51384321 -295501833 2128542958 -25755708 -102403
            1207382911 -194120073 -185075913</internalNodes>
          <leafValues>
            -5.3883272409439087e-01 3.1509456038475037e-01</leafValues></_>
        <_>
          <internalNodes>
            0 -1 25 2147123199 -4260037 -23527756 -999454 2142928893
            1456504821 -9404498 -948863118</internalNodes>
          <leafValues>
            -4.4686388969421387e-01 4.1955822706222534e-01</leafValues></_>
        <_>
          <internalNodes>
            0 -1 170 -223 -1078593552 -16787536 -1113139284 -805319492
            1836314621 -285370632 77987538</internalNodes>
          <leafValues>
            -5.2268660068511963e-01 3.1672781705856323e-01</leafValues></_>
        <_>
          <internalNodes>
            0 -1 136 1876721663 -1078181892 -67109121 -98308 2147326972
            -268902705 -16977924 -1360217104</internalNodes>
          <leafValues>
            -5.3826069831848145e-01 2.8066822886466980e-01</leafValues></_>
        <_>
          <internalNodes>
            0 -1 110 -135470080 -138920148 -53280820 -67272730
            1040123484 -17334339 938878094 1643634214</internalNodes>
          <leafValues>
            -5.6014037132263184e-01 2.7416810393333435e-01</leafValues></_>
        <_>
          <internalNodes>
            0 -1 70 2109206527 1027407806 -19206472 -4325596 1521789418
            266141692 -864520 1424480086</internalNodes>
          <leafValues>
            -4.4722324609756470e-01 3.3205041289329529e-01</leafValues></_>
        <_>
          <internalNodes>
            0 -1 101 519199583 788053878 -1716227 -285843716 -50439436
            -134293505 -402719108 -285442060</internalNodes>
          <leafValues>
            -6.3588345050811768e-01 2.2377449274063110e-01</leafValues></_></weakClassifiers></_>
    <!-- stage 3 -->
    <_>
      <maxWeakCount>12</maxWeakCount>
      <stageThreshold>-2.3699090480804443e+00</stageThreshold>
      <weakClassifiers>
        <_>
          <internalNodes>
            0 -1 33 -353374209 -1 -8705 -8193 -1025 -16385 -1 -1</internalNodes>
          <leafValues>
            -8.3995199203491211e-01 2.5602242350578308e-01</leafValues></_>
        <_>
          <internalNodes>
            0 -1 185 -2269 -1 -1343488286 -1 -134219008 -67110033 -2 -1</internalNodes>
          <leafValues>
            -5.8574008941650391e-01 4.1811877489089966e-01</leafValues></_>
        <_>
          <internalNodes>
            0 -1 193 -1326448681 -1951760713 -1644167491 -1359153156
            -1778729025 -1358955009 -16777283 -1930625539</internalNodes>
          <leafValues>
            -5.2083379030227661e-01 3.4760469198226929e-01</leafValues></_>
        <_>
          <internalNodes>
            0 -1 81 485158655 410844668 -18960388 -16973828 -34186500
            -1073939585 -69796 -16973840</internalNodes>
          <leafValues>
            -5.5338889360427856e-01 2.9722025990486145e-01</leafValues></_>
        <_>
          <internalNodes>
            0 -1 12 -823203201 -822149140 -285816074 -16846880
            1694294015 -823230465 -508228 1920980831</internalNodes>
          <leafValues>
            -5.1398402452468872e-01 3.0732700228691101e-01</leafValues></_>
        <_>
          <internalNodes>
            0 -1 61 -136372227 -188907651 -537003170 -901249 2138403284
            -17536393 -42303676 -9404592</internalNodes>
          <leafValues>
            -5.3996968269348145e-01 3.1366625428199768e-01</leafValues></_>
        <_>
          <internalNodes>
            0 -1 154 -268435465 791609272 -1117782152 -1514275212
            2113928180 1014824924 -4197260 1709176308</internalNodes>
          <leafValues>
            -5.5125141143798828e-01 2.7787694334983826e-01</leafValues></_>
        <_>
          <internalNodes>
            0 -1 32 -2002064253 -33623125 -131081 2146897762 82755515
            -335675905 -134811905 -305152641</internalNodes>
          <leafValues>
            -3.5504418611526489e-01 4.1757240891456604e-01</leafValues></_>
        <_>
          <internalNodes>
            0 -1 172 707950315 775715580 -268502083 -1929400836
            976680957 -1921057027 527892477 -1931555364</internalNodes>
          <leafValues>
            -5.2694123983383179e-01 2.8139337897300720e-01</leafValues></_>
        <_>
          <internalNodes>
            0 -1 86 1038082027 1562998460 -8458956 -4489544 -40574980
            962395484 2143219706 2033663967</internalNodes>
          <leafValues>
            -3.5056456923484802e-01 3.9514455199241638e-01</leafValues></_>
        <_>
          <internalNodes>
            0 -1 15 -285555217 1587346365 -140611299 -9027592 -34675779
            -200739 -35890248 -46891664</internalNodes>
          <leafValues>
            -5.4930818080902100e-01 2.5435346364974976e-01</leafValues></_>
        <_>
          <internalNodes>
            0 -1 9 714059515 514256638 -275198212 -838874886 2143141855
            2128395132 -1699808386 1440312955</internalNodes>
          <leafValues>
            -4.1080147027969360e-01 3.4830391407012939e-01</leafValues></_></weakClassifiers></_>
    <!-- stage 4 -->
    <_>
      <maxWeakCount>10</maxWeakCount>
      <stageThreshold>-2.3688457012176514e+00</stageThreshold>
      <weakClassifiers>
        <_>
          <internalNodes>
            0 -1 77 -16637 -8193 -14680065 -8193 -4195329 -67109889
            -1077936129 -1025</internalNodes>
          <leafValues>
            -8.7584257125854492e-01 3.4051425755023956e-02</leafValues></_>
        <_>
          <internalNodes>
            0 -1 36 -145772662 -262153 1195581211 -13 -4210689 -10489377
            536604587 -1</internalNodes>
          <leafValues>
            -6.8372631072998047e-01 2.6872190833091736e-01</leafValues></_>
        <_>
          <internalNodes>
            0 -1 188 -2097245 -1107822929 -286262368 -37766145 -8913340
            -1082328193 -1249040 -150999042</internalNodes>
          <leafValues>
            -4.4068744778633118e-01 4.3657714128494263e-01</leafValues></_>
        <_>
          <internalNodes>
            0 -1 169 1073569403 800653300 -3587 -1342373892 -16875691
            -16388 -117575052 -16975884</internalNodes>
          <leafValues>
            -5.9231579303741455e-01 2.9133957624435425e-01</leafValues></_>
        <_>
          <internalNodes>
            0 -1 85 -554729473 -1359052803 2130328955 -355016786
            2121812348 -1140864043 -604096692 -84607136</internalNodes>
          <leafValues>
            -6.1754083633422852e-01 2.4598981440067291e-01</leafValues></_>
        <_>
          <internalNodes>
            0 -1 100 805285715 -818020356 1071971314 -1347420438
            1583173588 1062567900 1067907882 901217783</internalNodes>
          <leafValues>
            -3.7385958433151245e-01 4.1716897487640381e-01</leafValues></_>
        <_>
          <internalNodes>
            0 -1 128 247410677 775731198 2147472893 -352518180
            1023245397 -5769 -1075982572 -352518156</internalNodes>
          <leafValues>
            -6.1580997705459595e-01 2.5240457057952881e-01</leafValues></_>
        <_>
          <internalNodes>
            0 -1 34 -1595757948 1338803582 -1417727311 1400758060
            2096537590 2147482622 771713758 535768750</internalNodes>
          <leafValues>
            -5.7988989353179932e-01 2.4561023712158203e-01</leafValues></_>
        <_>
          <internalNodes>
            0 -1 139 520044539 653709040 -96698403 -289084418
            -1141932188 -10485782 -67347856 -328404144</internalNodes>
          <leafValues>
            -5.7078450918197632e-01 2.5473016500473022e-01</leafValues></_>
        <_>
          <internalNodes>
            0 -1 175 -1011153900 1602205565 50229119 2038431581
            -1159926054 -84019713 -227082561 -83969063</internalNodes>
          <leafValues>
            -3.6113399267196655e-01 4.2435124516487122e-01</leafValues></_></weakClassifiers></_>
    <!-- stage 5 -->
    <_>
      <maxWeakCount>13</maxWeakCount>
      <stageThreshold>-2.6921014785766602e+00</stageThreshold>
      <weakClassifiers>
        <_>
          <internalNodes>
            0 -1 122 -161 -3073 -35660289 -513 -67372033 -9985 -262145
            -1</internalNodes>
          <leafValues>
            -8.2192581892013550e-01 3.7105068564414978e-01</leafValues></_>
        <_>
          <internalNodes>
            0 -1 159 -570428416 -2097153 -686588097 -8225 -50920034
            -1537 1059060735 -65</internalNodes>
          <leafValues>
            -6.3726341724395752e-01 2.9027941823005676e-01</leafValues></_>
        <_>
          <internalNodes>
            0 -1 48 1941152426 -67387601 1369743197 934260617
            -1073772561 -1089 2012208895 2011160283</internalNodes>
          <leafValues>
            -4.8624184727668762e-01 3.3810484409332275e-01</leafValues></_>
        <_>
          <internalNodes>
            0 -1 115 -134760555 1867907069 -1120600196 -8196 1607268332
            -1621229828 -273613826 2132279131</internalNodes>
          <leafValues>
            -3.4409832954406738e-01 4.2867207527160645e-01</leafValues></_>
        <_>
          <internalNodes>
            0 -1 10 -805310773 -970560538 -805341598 -172041484
            -52494373 -268974092 -1294469193 -690231326</internalNodes>
          <leafValues>
            -3.2097262144088745e-01 4.1869661211967468e-01</leafValues></_>
        <_>
          <internalNodes>
            0 -1 96 1188855639 774304632 -342691908 -1346437216
            1803312084 1572731902 -536941588 620101494</internalNodes>
          <leafValues>
            -5.5214196443557739e-01 2.4659650027751923e-01</leafValues></_>
        <_>
          <internalNodes>
            0 -1 108 1073216639 368573555 -560554244 736031228 -90603556
            876105972 534565084 620689660</internalNodes>
          <leafValues>
            -5.1246863603591919e-01 2.7329730987548828e-01</leafValues></_>
        <_>
          <internalNodes>
            0 -1 116 -1397719431 784134879 -1612778753 -327355400
            -537363851 -268633101 -17466892 -16973964</internalNodes>
          <leafValues>
            -6.0040926933288574e-01 2.1202597022056580e-01</leafValues></_>
        <_>
          <internalNodes>
            0 -1 41 1051110572 1524422606 1079255292 -403210370
            1485751166 -10715652 -55902210 1174347674</internalNodes>
          <leafValues>
            -4.5099505782127380e-01 2.7646771073341370e-01</leafValues></_>
        <_>
          <internalNodes>
            0 -1 60 1941333503 -1680540769 1901229311 -68093987
            1939216532 -1154060683 -633700836 -76087486</internalNodes>
          <leafValues>
            -3.8569709658622742e-01 3.1989297270774841e-01</leafValues></_>
        <_>
          <internalNodes>
            0 -1 179 -315638797 179630000 -1110704184 -1360073768
            -4342795 1826253743 -671155204 -1996496388</internalNodes>
          <leafValues>
            -3.9837425947189331e-01 3.0829691886901855e-01</leafValues></_>
        <_>
          <internalNodes>
            0 -1 91 1473455768 -1144064004 1509349932 1006493438
            1501552384 -209859907 93150346 532614878</internalNodes>
          <leafValues>
            -5.1881802082061768e-01 2.3394966125488281e-01</leafValues></_>
        <_>
          <internalNodes>
            0 -1 95 114946803 -1359022890 1559745527 -285437066
            -571508395 -290386 -539367052 -151061644</internalNodes>
          <leafValues>
            -4.5890039205551147e-01 2.5098985433578491e-01</leafValues></_></weakClassifiers></_>
    <!-- stage 6 -->
    <_>
      <maxWeakCount>12</maxWeakCount>
      <stageThreshold>-2.7814767360687256e+00</stageThreshold>
      <weakClassifiers>
        <_>
          <internalNodes>
            0 -1 183 -193 -524289 -280761857 -67110913 -3162362 -2125061
            -1285 -67109889</internalNodes>
          <leafValues>
            -8.5081440210342407e-01 -4.4843047857284546e-02</leafValues></_>
        <_>
          <internalNodes>
            0 -1 0 -894701589 -1074266133 -673229321 -35329 -68158481
            -68157697 -33554433 -257</internalNodes>
          <leafValues>
            -5.3922235965728760e-01 4.3594959378242493e-01</leafValues></_>
        <_>
          <internalNodes>
            0 -1 189 -4195533 -1216381393 -65888 -69206100 -188
            -134905859 -5242908 -73</internalNodes>
          <leafValues>
            -3.8679519295692444e-01 4.5588481426239014e-01</leafValues></_>
        <_>
          <internalNodes>
            0 -1 28 -33587433 -8947713 -321425414 -137 1044067960
            -4910289 -604341388 -13402287</internalNodes>
          <leafValues>
            -4.0536260604858398e-01 3.9692729711532593e-01</leafValues></_>
        <_>
          <internalNodes>
            0 -1 75 1006597753 1526627285 -137167489 2080274423
            1532254576 -76125709 -80199822 -13467850</internalNodes>
          <leafValues>
            -4.5280876755714417e-01 2.9148620367050171e-01</leafValues></_>
        <_>
          <internalNodes>
            0 -1 58 -994131973 780070907 -28937090 -129302620 -632918532
            787969783 -89359804 -222498896</internalNodes>
          <leafValues>
            -5.5330950021743774e-01 2.4559846520423889e-01</leafValues></_>
        <_>
          <internalNodes>
            0 -1 16 -271651153 -1125731588 -431059218 -1078034506
            -608403588 1610362671 1828674526 75462267</internalNodes>
          <leafValues>
            -4.6651971340179443e-01 2.7198886871337891e-01</leafValues></_>
        <_>
          <internalNodes>
            0 -1 142 530153471 -1616061672 -69476361 -13829124 966620009
            -149062997 -44107152 -1124286732</internalNodes>
          <leafValues>
            -5.3064209222793579e-01 2.3476526141166687e-01</leafValues></_>
        <_>
          <internalNodes>
            0 -1 141 2013259651 490271388 -593504548 -1624351500
            1566071796 2109570792 -302055812 767033334</internalNodes>
          <leafValues>
            -4.1719868779182434e-01 2.9530185461044312e-01</leafValues></_>
        <_>
          <internalNodes>
            0 -1 68 482278975 741929438 -1090521349 -285942788
            2062305914 -1678340677 2139028072 -55247884</internalNodes>
          <leafValues>
            -6.0112214088439941e-01 1.8829825520515442e-01</leafValues></_>
        <_>
          <internalNodes>
            0 -1 175 -711521200 -539036801 1124040573 -539067555
            -125926222 -83933975 -1291912453 -1023616253</internalNodes>
          <leafValues>
            -3.5344824194908142e-01 3.3126106858253479e-01</leafValues></_>
        <_>
          <internalNodes>
            0 -1 5 -288690469 -1494946136 1440699412 1610043296
            -809732647 -16973954 -961132866 2045721454</internalNodes>
          <leafValues>
            -4.2064887285232544e-01 2.8746548295021057e-01</leafValues></_></weakClassifiers></_>
    <!-- stage 7 -->
    <_>
      <maxWeakCount>15</maxWeakCount>
      <stageThreshold>-2.5377671718597412e+00</stageThreshold>
      <weakClassifiers>
        <_>
          <internalNodes>
            0 -1 124 -2099201 -69226313 -68690983 -795649 -8390006
            -71587075 453491482 2071985055</internalNodes>
          <leafValues>
            -8.3072412014007568e-01 -9.3311309814453125e-02</leafValues></_>
        <_>
          <internalNodes>
            0 -1 33 -357897233 -754139004 -4858369 2079790071 1097464831
            -1147700805 -145104897 -5244225</internalNodes>
          <leafValues>
            -5.6341838836669922e-01 2.9457288980484009e-01</leafValues></_>
        <_>
          <internalNodes>
            0 -1 53 1472721383 -572754978 -2063805572 -573219260
            -108069954 -107686964 -510338146 1431697406</internalNodes>
          <leafValues>
            -4.8915794491767883e-01 3.4183251857757568e-01</leafValues></_>
        <_>
          <internalNodes>
            0 -1 162 -263408 -10904588 360898000 -1617956612 -1118269448
            -68365468 1581577784 621278843</internalNodes>
          <leafValues>
            -4.7712162137031555e-01 3.0979752540588379e-01</leafValues></_>
        <_>
          <internalNodes>
            0 -1 88 1409273855 -14909464 -69924 2143239920 2136776648
            2102713596 -65794 1600126975</internalNodes>
          <leafValues>
            -2.9668325185775757e-01 4.6786984801292419e-01</leafValues></_>
        <_>
          <internalNodes>
            0 -1 173 -1074921473 707673983 -839 83820541 -1879195713
            -1929412609 1577057791 -1930430993</internalNodes>
          <leafValues>
            -2.8975427150726318e-01 4.5315536856651306e-01</leafValues></_>
        <_>
          <internalNodes>
            0 -1 20 1860054781 2112124662 -1877700390 -9240582
            1282722036 208959673 -27244450 1416971378</internalNodes>
          <leafValues>
            -4.8992958664894104e-01 2.5567227602005005e-01</leafValues></_>
        <_>
          <internalNodes>
            0 -1 17 -285750609 -355801362 -2108234080 -84083738
            1438336743 340431087 -11247770 -151011481</internalNodes>
          <leafValues>
            -3.8427254557609558e-01 3.0599790811538696e-01</leafValues></_>
        <_>
          <internalNodes>
            0 -1 114 1064636369 -1123268124 1436741810 -22217988 -537612
            2064159288 -85173394 912480118</internalNodes>
          <leafValues>
            -4.2420360445976257e-01 2.8672009706497192e-01</leafValues></_>
        <_>
          <internalNodes>
            0 -1 171 2010361173 1815139324 -578747972 229152220
            -539492620 -866025232 2145377788 70639084</internalNodes>
          <leafValues>
            -5.6498742103576660e-01 2.0576973259449005e-01</leafValues></_>
        <_>
          <internalNodes>
            0 -1 137 -533790715 -35655498 -339805985 -36972065
            -1322675576 -188794680 2096355770 -657305292</internalNodes>
          <leafValues>
            -3.6690452694892883e-01 2.9852005839347839e-01</leafValues></_>
        <_>
          <internalNodes>
            0 -1 66 -539231169 -1614876883 2113719934 -1120051260
            2113697516 1052770303 -1073996066 1994096511</internalNodes>
          <leafValues>
            -2.6883363723754883e-01 4.2300894856452942e-01</leafValues></_>
        <_>
          <internalNodes>
            0 -1 152 -4326557 406650484 -1128268300 1563118816
            -579534856 1584922620 -1124280598 1068498678</internalNodes>
          <leafValues>
            -2.8265666961669922e-01 3.5713818669319153e-01</leafValues></_>
        <_>
          <internalNodes>
            0 -1 140 1022721015 -1747264423 -750914564 -1476463628
            2075729236 1938662123 -1175389328 -1090716812</internalNodes>
          <leafValues>
            -5.5887651443481445e-01 1.9990412890911102e-01</leafValues></_>
        <_>
          <internalNodes>
            0 -1 79 2008893651 253668087 -685974696 -1745391764
            2004908508 1494247660 -1397588998 566058887</internalNodes>
          <leafValues>
            -3.6846968531608582e-01 2.9166746139526367e-01</leafValues></_></weakClassifiers></_>
    <!-- stage 8 -->
    <_>
      <maxWeakCount>17</maxWeakCount>
      <stageThreshold>-2.4764904975891113e+00</stageThreshold>
      <weakClassifiers>
        <_>
          <internalNodes>
            0 -1 109 -538978475 -675292161 -69607937 -2099201
            -1091831809 -65793 -1180713985 -1025</internalNodes>
          <leafValues>
            -8.2412093877792358e-01 -1.4320786297321320e-01</leafValues></_>
        <_>
          <internalNodes>
            0 -1 30 -52494337 -134327297 -78070531 -9380357 -204850183
            -822838729 -81560001 -9207945</internalNodes>
          <leafValues>
            -5.5790215730667114e-01 2.5002112984657288e-01</leafValues></_>
        <_>
          <internalNodes>
            0 -1 145 -50360320 -8661057 -549650737 -1086325825 820908430
            -1141580802 851966938 2134634495</internalNodes>
          <leafValues>
            -4.7083353996276855e-01 2.6536431908607483e-01</leafValues></_>
        <_>
          <internalNodes>
            0 -1 8 -491860245 -458969366 -692371690 2146937802
            -842793217 -23927657 73385727 -235944209</internalNodes>
          <leafValues>
            -2.9802101850509644e-01 3.8278171420097351e-01</leafValues></_>
        <_>
          <internalNodes>
            0 -1 44 -17993985 1608041426 -622269360 -32812 1537100510
            1280375654 2129976572 1451220955</internalNodes>
          <leafValues>
            -3.1509363651275635e-01 3.6021760106086731e-01</leafValues></_>
        <_>
          <internalNodes>
            0 -1 87 1994391485 2141510036 -2689808 1861146104 -619164963
            1551428892 -592904500 1962934262</internalNodes>
          <leafValues>
            -4.4715487957000732e-01 2.4569080770015717e-01</leafValues></_>
        <_>
          <internalNodes>
            0 -1 131 -4194927 2134245297 -1409815663 -1145045059
            -211821092 1870528509 -207647778 1933049855</internalNodes>
          <leafValues>
            -2.7976080775260925e-01 3.9072829484939575e-01</leafValues></_>
        <_>
          <internalNodes>
            0 -1 149 1534284977 27309564 -204793886 -1896946696
            -805407884 -608722181 -75564172 -18040076</internalNodes>
          <leafValues>
            -5.2305418252944946e-01 2.1491277217864990e-01</leafValues></_>
        <_>
          <internalNodes>
            0 -1 56 -1198817638 507833308 -688604084 264207568
            1517816796 1591484606 -7442770 1979669210</internalNodes>
          <leafValues>
            -4.1932848095893860e-01 2.3066113889217377e-01</leafValues></_>
        <_>
          <internalNodes>
            0 -1 43 -1195395341 1073676028 -16847058 -12 1325157616
            -557195 -110625 2108686238</internalNodes>
          <leafValues>
            -2.6579213142395020e-01 3.7530979514122009e-01</leafValues></_>
        <_>
          <internalNodes>
            0 -1 23 2144997561 -1073859617 -775568769 -40304738
            -28419844 -560072683 -87807136 2099272212</internalNodes>
          <leafValues>
            -6.4535415172576904e-01 1.6173964738845825e-01</leafValues></_>
        <_>
          <internalNodes>
            0 -1 161 -14713040 -38024914 -1344427096 -1378051148
            -1147520 -269505810 243101374 779616254</internalNodes>
          <leafValues>
            -3.9025145769119263e-01 2.3175434768199921e-01</leafValues></_>
        <_>
          <internalNodes>
            0 -1 126 2121769695 -1092690977 -8258883 -285449688
            -546546724 -2380833 -335742084 -286460108</internalNodes>
          <leafValues>
            -3.6019733548164368e-01 2.7401396632194519e-01</leafValues></_>
        <_>
          <internalNodes>
            0 -1 190 2097145713 243986888 -972173888 -104437254
            2002774852 1656809761 -17374796 -1069093644</internalNodes>
          <leafValues>
            -5.2848523855209351e-01 1.7264153063297272e-01</leafValues></_>
        <_>
          <internalNodes>
            0 -1 93 1825045259 -64291091 -73764 -135170 -537600576
            488538111 -285319266 1071607479</internalNodes>
          <leafValues>
            -2.6283001899719238e-01 3.6460277438163757e-01</leafValues></_>
        <_>
          <internalNodes>
            0 -1 31 -839995469 -639325464 2113338357 -168039175
            2120415963 -180227 1600581628 -1544880396</internalNodes>
          <leafValues>
            -2.5424191355705261e-01 3.9355283975601196e-01</leafValues></_>
        <_>
          <internalNodes>
            0 -1 72 -1082278145 -185542476 -1819665924 -269295632
            -914069040 502544550 -71926320 905391930</internalNodes>
          <leafValues>
            -3.5600680112838745e-01 2.7776560187339783e-01</leafValues></_></weakClassifiers></_>
    <!-- stage 9 -->
    <_>
      <maxWeakCount>19</maxWeakCount>
      <stageThreshold>-2.5992357730865479e+00</stageThreshold>
      <weakClassifiers>
        <_>
          <internalNodes>
            0 -1 29 -2049 -2101761 -619455489 -2099201 -356520965
            -12887697 -69730433 -8913025</internalNodes>
          <leafValues>
            -8.1601893901824951e-01 -1.8466027081012726e-01</leafValues></_>
        <_>
          <internalNodes>
            0 -1 65 -585377064 -536872579 889201665 -640680313
            -610542673 -21042987 891490283 2009067455</internalNodes>
          <leafValues>
            -5.6888067722320557e-01 1.7497661709785461e-01</leafValues></_>
        <_>
          <internalNodes>
            0 -1 76 -1978490957 -3463692 -1680900641 -617014044
            -311033857 -1415141377 -1145831697 -269500257</internalNodes>
          <leafValues>
            -3.4512868523597717e-01 3.5052004456520081e-01</leafValues></_>
        <_>
          <internalNodes>
            0 -1 112 2134330832 2137969007 -1884361088 -275915252
            2069826440 2147021791 1944849930 935287519</internalNodes>
          <leafValues>
            -4.6067184209823608e-01 2.4468055367469788e-01</leafValues></_>
        <_>
          <internalNodes>
            0 -1 130 -1485836301 1031127028 2147253978 -272662572
            -682229768 -1092747276 -1090756630 935296895</internalNodes>
          <leafValues>
            -2.2044627368450165e-01 4.4400480389595032e-01</leafValues></_>
        <_>
          <internalNodes>
            0 -1 158 -1050121 -1704412295 -38919 -1912619011 -33589251
            -1996556803 -553660931 -1913661953</internalNodes>
          <leafValues>
            -2.4363869428634644e-01 4.2855113744735718e-01</leafValues></_>
        <_>
          <internalNodes>
            0 -1 59 -2097185 521206269 -2059341318 -4259876 1484015864
            455910260 -1494328716 1994874718</internalNodes>
          <leafValues>
            -3.4296056628227234e-01 2.8734427690505981e-01</leafValues></_>
        <_>
          <internalNodes>
            0 -1 177 -25179648 -42091655 -1629536513 798789781
            -897807872 -62316297 -252905272 1075871224</internalNodes>
          <leafValues>
            -4.6099340915679932e-01 1.9138973951339722e-01</leafValues></_>
        <_>
          <internalNodes>
            0 -1 104 1069416447 1005985020 -800327441 -1971536136
            409750364 1945761979 -541271180 -16844816</internalNodes>
          <leafValues>
            -4.3575963377952576e-01 2.0477792620658875e-01</leafValues></_>
        <_>
          <internalNodes>
            0 -1 118 1606418427 1038417148 -16781322 -1347486596
            2104784252 2136243452 -536940996 1073725175</internalNodes>
          <leafValues>
            -3.0587261915206909e-01 3.1474193930625916e-01</leafValues></_>
        <_>
          <internalNodes>
            0 -1 38 -1148933462 -750197042 -1870884488 129357948
            1531754974 1514974110 2057100186 484265339</internalNodes>
          <leafValues>
            -3.9624112844467163e-01 2.3587962985038757e-01</leafValues></_>
        <_>
          <internalNodes>
            0 -1 176 -1991369735 452518904 -754519571 -1888190484
            -1815023627 -1094855763 -1459637764 -1930889988</internalNodes>
          <leafValues>
            -4.9086853861808777e-01 1.9583120942115784e-01</leafValues></_>
        <_>
          <internalNodes>
            0 -1 94 1379836595 1060959220 28886300 -1342373908
            1576820692 1555095979 -71413908 553481084</internalNodes>
          <leafValues>
            -4.6212410926818848e-01 1.7935937643051147e-01</leafValues></_>
        <_>
          <internalNodes>
            0 -1 24 -285213957 -19597347 2119231702 -537600012
            -249871364 1288770935 -222502914 -145237638</internalNodes>
          <leafValues>
            -2.8658935427665710e-01 3.1277367472648621e-01</leafValues></_>
        <_>
          <internalNodes>
            0 -1 83 -642368629 1000687984 1422188656 2140132484
            -608671332 157141224 2130071470 111378302</internalNodes>
          <leafValues>
            -3.5349807143211365e-01 2.5398647785186768e-01</leafValues></_>
        <_>
          <internalNodes>
            0 -1 64 -1163786128 1571172550 -6907939 2142626260 569093110
            -1130643320 -1679091756 -1771032444</internalNodes>
          <leafValues>
            -3.9802709221839905e-01 2.1967612206935883e-01</leafValues></_>
        <_>
          <internalNodes>
            0 -1 133 1004001713 2132791767 -687821580 -1916805180
            -72549508 963418453 -285802514 1684393590</internalNodes>
          <leafValues>
            -3.5112795233726501e-01 2.4655736982822418e-01</leafValues></_>
        <_>
          <internalNodes>
            0 -1 62 -16781893 1556495318 1301335504 1536720346
            -346329186 1182797556 2097299398 1610053626</internalNodes>
          <leafValues>
            -3.4474733471870422e-01 2.5641497969627380e-01</leafValues></_>
        <_>
          <internalNodes>
            0 -1 157 1870659423 -1406354056 -256673281 -1342375432
            404306300 942844825 1610379644 -1934960388</internalNodes>
          <leafValues>
            -4.3444171547889709e-01 1.9246220588684082e-01</leafValues></_></weakClassifiers></_>
    <!-- stage 10 -->
    <_>
      <maxWeakCount>21</maxWeakCount>
      <stageThreshold>-2.4801957607269287e+00</stageThreshold>
      <weakClassifiers>
        <_>
          <internalNodes>
            0 -1 182 -9441 -2102273 1744557055 -2098177 -2376513
            -104092965 -138690913 -1057</internalNodes>
          <leafValues>
            -8.1062328815460205e-01 -1.5852534770965576e-01</leafValues></_>
        <_>
          <internalNodes>
            0 -1 28 -37781505 -8690817 -554275845 -33554433 -16812421
            -69380996 -604345487 -9224333</internalNodes>
          <leafValues>
            -5.5544716119766235e-01 1.4477171003818512e-01</leafValues></_>
        <_>
          <internalNodes>
            0 -1 3 -863049014 143320234 -606181393 498036600 533614815
            -572854342 2130671358 1342131951</internalNodes>
          <leafValues>
            -5.1235365867614746e-01 1.9232203066349030e-01</leafValues></_>
        <_>
          <internalNodes>
            0 -1 165 -5375663 -1103759499 -7422160 -1078149640
            1601888100 -1082197379 -562627906 1945108471</internalNodes>
          <leafValues>
            -3.2210120558738708e-01 2.8988444805145264e-01</leafValues></_>
        <_>
          <internalNodes>
            0 -1 178 -537006664 1060630449 -429080960 -1426063410
            -1711342204 -21135489 -16843036 -251658522</internalNodes>
          <leafValues>
            -2.8027066588401794e-01 3.3463782072067261e-01</leafValues></_>
        <_>
          <internalNodes>
            0 -1 103 1606243311 1010620340 -480853416 999728060
            1481657340 1004252089 -118788 905936895</internalNodes>
          <leafValues>
            -2.9693254828453064e-01 2.9967182874679565e-01</leafValues></_>
        <_>
          <internalNodes>
            0 -1 150 2143152057 930978804 -201604737 -1076036620
            -105616900 -3292392 989625340 -16842764</internalNodes>
          <leafValues>
            -3.6462643742561340e-01 2.7210158109664917e-01</leafValues></_>
        <_>
          <internalNodes>
            0 -1 54 894705080 -655364 -1073943151 -538980419 -33554466
            -564330508 -13832193 1599053822</internalNodes>
          <leafValues>
            -2.8682231903076172e-01 3.3488377928733826e-01</leafValues></_>
        <_>
          <internalNodes>
            0 -1 191 -34612309 718855968 -538075680 -1464293964
            -538185729 242809590 -285495584 -1996951044</internalNodes>
          <leafValues>
            -4.5463278889656067e-01 2.0581088960170746e-01</leafValues></_>
        <_>
          <internalNodes>
            0 -1 55 -576275789 -1645415442 -993496356 -1344474300
            1217938620 1571844648 1069174910 643267450</internalNodes>
          <leafValues>
            -3.9077949523925781e-01 2.2871950268745422e-01</leafValues></_>
        <_>
          <internalNodes>
            0 -1 96 835583799 1052168703 1228312988 -1083180120
            1764450300 970304234 -26457364 2096594806</internalNodes>
          <leafValues>
            -3.4290370345115662e-01 2.5305649638175964e-01</leafValues></_>
        <_>
          <internalNodes>
            0 -1 107 2096913887 -32212004 1896509951 -4263457 -105882256
            1004689150 -48040964 -1078822020</internalNodes>
          <leafValues>
            -3.8184398412704468e-01 2.3003982007503510e-01</leafValues></_>
        <_>
          <internalNodes>
            0 -1 134 -538978705 -43714316 -644160131 -1131479876
            821643700 942737836 -1360068628 884456702</internalNodes>
          <leafValues>
            -3.3582973480224609e-01 2.6989141106605530e-01</leafValues></_>
        <_>
          <internalNodes>
            0 -1 52 -609706241 968276520 -12578931 1978932032 -890345734
            2145041339 -72471828 804616182</internalNodes>
          <leafValues>
            -2.9516115784645081e-01 2.8939595818519592e-01</leafValues></_>
        <_>
          <internalNodes>
            0 -1 50 1084681775 -660293142 1609952647 1373025744
            -1867789831 -205836803 767777123 -270051996</internalNodes>
          <leafValues>
            -3.0495995283126831e-01 2.7364447712898254e-01</leafValues></_>
        <_>
          <internalNodes>
            0 -1 125 679222838 861729780 -137929867 653587806 -4688268
            -1074041941 -5195420 -856129680</internalNodes>
          <leafValues>
            -5.7621902227401733e-01 1.4593905210494995e-01</leafValues></_>
        <_>
          <internalNodes>
            0 -1 147 2138768785 2071456732 256488892 -1078140940
            -380213096 257784510 737181695 251131263</internalNodes>
          <leafValues>
            -2.9503846168518066e-01 2.8751936554908752e-01</leafValues></_>
        <_>
          <internalNodes>
            0 -1 174 -757660591 -77621285 1973837782 2079682873
            -75967788 -23512647 -209426006 -815049479</internalNodes>
          <leafValues>
            -2.9090416431427002e-01 2.9456683993339539e-01</leafValues></_>
        <_>
          <internalNodes>
            0 -1 153 2103425251 658305406 -1817979575 -269563908
            1944665397 -610301731 -1142784864 -1090618892</internalNodes>
          <leafValues>
            -4.3579778075218201e-01 1.8946620821952820e-01</leafValues></_>
        <_>
          <internalNodes>
            0 -1 152 2143222629 -668671376 -1878165008 792353520
            -48628744 1259385488 -1097013510 1059839966</internalNodes>
          <leafValues>
            -2.8370657563209534e-01 2.9525023698806763e-01</leafValues></_>
        <_>
          <internalNodes>
            0 -1 13 -1897206017 -114952 -21041282 -579866884 -33783809
            -229386 2146729978 1505746062</internalNodes>
          <leafValues>
            -2.5040203332901001e-01 3.3066934347152710e-01</leafValues></_></weakClassifiers></_>
    <!-- stage 11 -->
    <_>
      <maxWeakCount>21</maxWeakCount>
      <stageThreshold>-2.4255151748657227e+00</stageThreshold>
      <weakClassifiers>
        <_>
          <internalNodes>
            0 -1 181 -2107873 -1281 1004526559 -2097217 -220464401
            -74452305 -69730305 -1</internalNodes>
          <leafValues>
            -8.0506032705307007e-01 -1.8949343264102936e-01</leafValues></_>
        <_>
          <internalNodes>
            0 -1 180 -1210059785 -1670496257 -38412833 -1929453587
            -1141900289 -1428297043 -1076101121 -1895825665</internalNodes>
          <leafValues>
            -4.9553185701370239e-01 1.9162614643573761e-01</leafValues></_>
        <_>
          <internalNodes>
            0 -1 1 -487658761 -105058625 530549727 -1208013065
            1778380031 -67119105 -5414913 -4208385</internalNodes>
          <leafValues>
            -2.7389228343963623e-01 3.9687395095825195e-01</leafValues></_>
        <_>
          <internalNodes>
            0 -1 187 -71307432 2071327672 -207697108 -2248196 -201850884
            -175261272 -4199432 1064368118</internalNodes>
          <leafValues>
            -3.7362232804298401e-01 2.4895551800727844e-01</leafValues></_>
        <_>
          <internalNodes>
            0 -1 89 1441307101 897071573 428850175 1006296863 -921690892
            2144760219 -1025160 -901264</internalNodes>
          <leafValues>
            -4.2739251255989075e-01 2.1140386164188385e-01</leafValues></_>
        <_>
          <internalNodes>
            0 -1 129 -144841473 1062010864 -1342242832 -1078067336
            1475633140 2134900732 -1074897942 620756855</internalNodes>
          <leafValues>
            -2.7549204230308533e-01 3.2155400514602661e-01</leafValues></_>
        <_>
          <internalNodes>
            0 -1 106 2138828671 -1629945860 -562131201 -268505124
            -42181124 391413756 -1134850 2063591935</internalNodes>
          <leafValues>
            -2.0798124372959137e-01 3.9451077580451965e-01</leafValues></_>
        <_>
          <internalNodes>
            0 -1 42 -1403343377 -1108410642 1549555702 -3276836
            -1678114370 2127864830 -91554818 1298112506</internalNodes>
          <leafValues>
            -2.9824614524841309e-01 2.9018142819404602e-01</leafValues></_>
        <_>
          <internalNodes>
            0 -1 14 -825300242 -559229106 -535109010 -85265264
            1169381359 -638234449 866377605 -212599882</internalNodes>
          <leafValues>
            -3.0393818020820618e-01 2.7929225564002991e-01</leafValues></_>
        <_>
          <internalNodes>
            0 -1 113 503168703 -1615007300 -221468617 -268928212
            1945665020 -1078252597 1306983032 -323160108</internalNodes>
          <leafValues>
            -3.6914086341857910e-01 2.4383394420146942e-01</leafValues></_>
        <_>
          <internalNodes>
            0 -1 10 -473715069 -431076892 -894077840 -777200852
            194703242 -268762428 -2137950950 1356703200</internalNodes>
          <leafValues>
            -3.8855153322219849e-01 1.9671221077442169e-01</leafValues></_>
        <_>
          <internalNodes>
            0 -1 63 -1681961797 -808029283 1495957711 -135102531
            1915779956 -55893841 -1183424760 -13467789</internalNodes>
          <leafValues>
            -3.4844708442687988e-01 2.3135003447532654e-01</leafValues></_>
        <_>
          <internalNodes>
            0 -1 143 1035821039 267704828 -895757827 -1417748004
            2072603636 -6780019 -1146280332 -1126502156</internalNodes>
          <leafValues>
            -4.5873618125915527e-01 1.6329202055931091e-01</leafValues></_>
        <_>
          <internalNodes>
            0 -1 99 2146415073 1041681245 1897831212 805222228
            1240996860 1599925935 1659796860 619151190</internalNodes>
          <leafValues>
            -4.0779674053192139e-01 1.9114892184734344e-01</leafValues></_>
        <_>
          <internalNodes>
            0 -1 155 2004745591 -393224 -2028782344 -1920019860
            -539116644 1768989557 -1995940 796131166</internalNodes>
          <leafValues>
            -3.1449690461158752e-01 2.5507357716560364e-01</leafValues></_>
        <_>
          <internalNodes>
            0 -1 151 -8694797 -1610947172 660525809 2065470940 469270333
            -71573361 2046326760 -285410060</internalNodes>
          <leafValues>
            -3.9866897463798523e-01 1.8745890259742737e-01</leafValues></_>
        <_>
          <internalNodes>
            0 -1 26 -612804865 -562102289 -51447940 -100860166
            -570560803 -1111722145 2112124924 -214724812</internalNodes>
          <leafValues>
            -2.6125517487525940e-01 2.9353916645050049e-01</leafValues></_>
        <_>
          <internalNodes>
            0 -1 119 334231103 1073008681 -1206475719 -1345447588
            1511291772 2138612216 -608404996 1744827126</internalNodes>
          <leafValues>
            -3.2346779108047485e-01 2.4901026487350464e-01</leafValues></_>
        <_>
          <internalNodes>
            0 -1 7 -1966691660 1341055406 -294745365 86706922 -358646003
            1563325178 2076995484 1064266255</internalNodes>
          <leafValues>
            -4.4530558586120605e-01 1.7353869974613190e-01</leafValues></_>
        <_>
          <internalNodes>
            0 -1 92 -193462533 1052283386 1846469486 -303148034
            2071663356 1037853177 -1078429604 -257492155</internalNodes>
          <leafValues>
            -2.9932680726051331e-01 2.7586585283279419e-01</leafValues></_>
        <_>
          <internalNodes>
            0 -1 148 2145336465 1052365780 -40051724 -1111622700
            -716023184 2088609953 -251823378 22511358</internalNodes>
          <leafValues>
            -3.1382077932357788e-01 2.4101208150386810e-01</leafValues></_></weakClassifiers></_>
    <!-- stage 12 -->
    <_>
      <maxWeakCount>20</maxWeakCount>
      <stageThreshold>-2.3895030021667480e+00</stageThreshold>
      <weakClassifiers>
        <_>
          <internalNodes>
            0 -1 122 -36176041 -35660321 -36833793 -538976263 -75892087
            -1140993349 -1082130497 -5121</internalNodes>
          <leafValues>
            -8.2285183668136597e-01 -3.3293521404266357e-01</leafValues></_>
        <_>
          <internalNodes>
            0 -1 46 -18907137 -8687267 -1155813505 2147178491
            -1191614440 -122313 -77168779 -13402269</internalNodes>
          <leafValues>
            -5.4111331701278687e-01 1.1477563530206680e-01</leafValues></_>
        <_>
          <internalNodes>
            0 -1 184 -551168 -1118312611 -1492841742 -145801353
            -1250518524 -322318687 1685825070 2004350850</internalNodes>
          <leafValues>
            -4.3610885739326477e-01 2.2716133296489716e-01</leafValues></_>
        <_>
          <internalNodes>
            0 -1 67 -315639817 -1769474 -689111060 -573219256 -581107723
            1557987324 -268640258 232742911</internalNodes>
          <leafValues>
            -2.7712744474411011e-01 3.2813337445259094e-01</leafValues></_>
        <_>
          <internalNodes>
            0 -1 132 -677380975 -25821444 -269091920 -1627914592
            -1074331924 794689116 787939034 792723298</internalNodes>
          <leafValues>
            -2.7496913075447083e-01 3.0864712595939636e-01</leafValues></_>
        <_>
          <internalNodes>
            0 -1 111 1932050352 1032602620 -1761805632 -1377894668
            1054174040 2112701147 -285974916 553082695</internalNodes>
          <leafValues>
            -4.9808362126350403e-01 1.5662303566932678e-01</leafValues></_>
        <_>
          <internalNodes>
            0 -1 192 -612579151 -1370163190 -792552528 -1929636628
            -1144261651 548694713 -33686568 -1931695699</internalNodes>
          <leafValues>
            -4.1347557306289673e-01 2.0308506488800049e-01</leafValues></_>
        <_>
          <internalNodes>
            0 -1 45 1339998183 801944567 -1088892840 -843826244
            2138723576 1299503551 -1352245414 1315921022</internalNodes>
          <leafValues>
            -3.2385540008544922e-01 2.3725609481334686e-01</leafValues></_>
        <_>
          <internalNodes>
            0 -1 22 -17040778 -8457683 -688097698 2128376830 -67399676
            -601041043 -958352420 -164316316</internalNodes>
          <leafValues>
            -3.8947078585624695e-01 1.9347415864467621e-01</leafValues></_>
        <_>
          <internalNodes>
            0 -1 70 -4751509 1841299388 -16846936 1069412132 1593094138
            1037893500 -373126 1605361407</internalNodes>
          <leafValues>
            -2.3514747619628906e-01 3.2295623421669006e-01</leafValues></_>
        <_>
          <internalNodes>
            0 -1 127 -1484995417 1061076985 -1075511500 -1073938452
            -571187204 1591738367 -276889666 536838143</internalNodes>
          <leafValues>
            -2.4926824867725372e-01 3.1876370310783386e-01</leafValues></_>
        <_>
          <internalNodes>
            0 -1 71 503152319 1073143806 -237506178 -84214914 2065586256
            1062349051 -1142396588 -85691532</internalNodes>
          <leafValues>
            -5.2058160305023193e-01 1.5554682910442352e-01</leafValues></_>
        <_>
          <internalNodes>
            0 -1 19 -1359778113 -5443718 -83956180 -272777218 2097078013
            527728510 -38379830 520051790</internalNodes>
          <leafValues>
            -2.5916519761085510e-01 2.9727831482887268e-01</leafValues></_>
        <_>
          <internalNodes>
            0 -1 82 2092486335 752808606 1913950654 1051484148
            2061122172 -67591498 -37979812 1023211988</internalNodes>
          <leafValues>
            -5.7631421089172363e-01 1.3500896096229553e-01</leafValues></_>
        <_>
          <internalNodes>
            0 -1 37 309112575 -1685543182 999708605 2011636288
            -115572997 -1459818249 2084442350 1458010895</internalNodes>
          <leafValues>
            -3.0521738529205322e-01 2.5790148973464966e-01</leafValues></_>
        <_>
          <internalNodes>
            0 -1 73 -27313153 182096382 -723986726 787673580 -1701834180
            1589133053 -17629612 2009562966</internalNodes>
          <leafValues>
            -4.2067179083824158e-01 1.7296834290027618e-01</leafValues></_>
        <_>
          <internalNodes>
            0 -1 80 819167314 -1390120260 1327155760 -136054796
            1537334180 1037621692 -1433736342 1705474358</internalNodes>
          <leafValues>
            -3.9782571792602539e-01 1.7951723933219910e-01</leafValues></_>
        <_>
          <internalNodes>
            0 -1 163 1475860977 1067700702 -435440980 -268461092
            -205751572 -206016275 -51839364 -157483276</internalNodes>
          <leafValues>
            -3.0370891094207764e-01 2.3801904916763306e-01</leafValues></_>
        <_>
          <internalNodes>
            0 -1 164 2094357752 510440120 -711485480 -1074857156
            -119768548 -605136760 -1017604 587102578</internalNodes>
          <leafValues>
            -4.1449642181396484e-01 1.6872467100620270e-01</leafValues></_>
        <_>
          <internalNodes>
            0 -1 39 -953488437 -833842336 -1994435757 -202451232
            -1966034198 -1097176181 2056786782 345096272</internalNodes>
          <leafValues>
            -3.6151775717735291e-01 1.9553586840629578e-01</leafValues></_></weakClassifiers></_>
    <!-- stage 13 -->
    <_>
      <maxWeakCount>23</maxWeakCount>
      <stageThreshold>-2.4585239887237549e+00</stageThreshold>
      <weakClassifiers>
        <_>
          <internalNodes>
            0 -1 47 -905774085 1610445016 -8522241 -65293 1334575099
            -84501001 -1352141857 -5256225</internalNodes>
          <leafValues>
            -8.2741475105285645e-01 -4.1455242037773132e-01</leafValues></_>
        <_>
          <internalNodes>
            0 -1 193 -1787331113 -1953621871 -1656840719 -1937874691
            -2120486731 -1463950930 -154683393 -1929445889</internalNodes>
          <leafValues>
            -5.7091456651687622e-01 4.2974088340997696e-02</leafValues></_>
        <_>
          <internalNodes>
            0 -1 186 -147071055 -109199471 -1759513672 -3148911
            -201850976 -748931398 -1125126216 1975516091</internalNodes>
          <leafValues>
            -3.1435307860374451e-01 3.0290117859840393e-01</leafValues></_>
        <_>
          <internalNodes>
            0 -1 57 1054745771 -1073807754 -865806338 -1073888692
            -107463970 -640615684 -318996646 89513914</internalNodes>
          <leafValues>
            -3.9784896373748779e-01 2.1313248574733734e-01</leafValues></_>
        <_>
          <internalNodes>
            0 -1 97 844706353 -101348868 -736361628 -1073873028
            -296817688 -1655340296 893284074 1971158910</internalNodes>
          <leafValues>
            -3.4596040844917297e-01 2.5842383503913879e-01</leafValues></_>
        <_>
          <internalNodes>
            0 -1 49 -1541238616 -560299976 1024937782 -570466063
            192412667 -72485965 1057403758 -1880108303</internalNodes>
          <leafValues>
            -3.2340312004089355e-01 2.4658544361591339e-01</leafValues></_>
        <_>
          <internalNodes>
            0 -1 40 -1203985734 -1614874884 -1240312330 2113798108
            2147373758 -543383542 -268653061 208657118</internalNodes>
          <leafValues>
            -3.1974399089813232e-01 2.4970880150794983e-01</leafValues></_>
        <_>
          <internalNodes>
            0 -1 98 1413316351 1054538478 -707526787 1287454184
            2146194260 -7041046 -6758540 -17013772</internalNodes>
          <leafValues>
            -4.8685175180435181e-01 1.7291665077209473e-01</leafValues></_>
        <_>
          <internalNodes>
            0 -1 51 1465760427 -825495682 1141169885 1567575640
            -279003214 -268501123 1594846879 1528813291</internalNodes>
          <leafValues>
            -2.0751433074474335e-01 3.7387457489967346e-01</leafValues></_>
        <_>
          <internalNodes>
            0 -1 123 1600071174 -210827766 1394209566 -94772442
            -549357616 -221926748 522780528 -1923256324</internalNodes>
          <leafValues>
            -5.0752735137939453e-01 1.5537822246551514e-01</leafValues></_>
        <_>
          <internalNodes>
            0 -1 168 2147479329 1072742397 -33484 1069440728 -541409316
            -1375928324 -1342185474 791935743</internalNodes>
          <leafValues>
            -2.3724232614040375e-01 3.3419418334960938e-01</leafValues></_>
        <_>
          <internalNodes>
            0 -1 166 1701659633 795146224 -640425772 -2013480080
            968116596 993608255 -337051808 -120269836</internalNodes>
          <leafValues>
            -5.6011283397674561e-01 1.3367533683776855e-01</leafValues></_>
        <_>
          <internalNodes>
            0 -1 90 1474031103 -1126269961 -250617925 -16991235
            -1817912592 -1078451379 -363823618 -12943494</internalNodes>
          <leafValues>
            -2.6643669605255127e-01 2.7555823326110840e-01</leafValues></_>
        <_>
          <internalNodes>
            0 -1 27 -16811137 -1094954209 -761641762 -338010626 65298612
            1913917937 -208372896 -78258860</internalNodes>
          <leafValues>
            -3.8378000259399414e-01 1.9268415868282318e-01</leafValues></_>
        <_>
          <internalNodes>
            0 -1 105 -50332449 -331808804 -16863524 -4345876 -52158635
            1022688508 2147360762 1744830079</internalNodes>
          <leafValues>
            -2.1307513117790222e-01 3.3437988162040710e-01</leafValues></_>
        <_>
          <internalNodes>
            0 -1 138 507772928 -279680300 -547702834 2112715741
            642783436 2069864701 611741196 539437172</internalNodes>
          <leafValues>
            -6.8733662366867065e-01 1.0635721683502197e-01</leafValues></_>
        <_>
          <internalNodes>
            0 -1 146 -585268837 -1090519043 -721168 2146238070 523761502
            -545259532 656375675 726925311</internalNodes>
          <leafValues>
            -2.0678812265396118e-01 3.6537364125251770e-01</leafValues></_>
        <_>
          <internalNodes>
            0 -1 117 2138078079 788182008 -902184451 754856820
            -341761232 -124002117 -92243084 -17501292</internalNodes>
          <leafValues>
            -5.6592857837677002e-01 1.4340744912624359e-01</leafValues></_>
        <_>
          <internalNodes>
            0 -1 135 1473771591 155717108 -745288496 -69136 1803499828
            756320413 1759524980 617576184</internalNodes>
          <leafValues>
            -4.8389464616775513e-01 1.4870519936084747e-01</leafValues></_>
        <_>
          <internalNodes>
            0 -1 78 315458741 2112159040 -61933444 -1380127882
            2038305708 2143942282 -12781220 615799646</internalNodes>
          <leafValues>
            -4.0880954265594482e-01 1.7367431521415710e-01</leafValues></_>
        <_>
          <internalNodes>
            0 -1 69 -770213249 1064833749 -465112868 -541295792
            1518342616 939299745 -1161929092 2130664319</internalNodes>
          <leafValues>
            -2.7074956893920898e-01 2.7969536185264587e-01</leafValues></_>
        <_>
          <internalNodes>
            0 -1 66 1321761848 112633468 1908457516 1564301184 966283492
            1051689657 -74769700 1656191998</internalNodes>
          <leafValues>
            -4.1052979230880737e-01 1.6677647829055786e-01</leafValues></_>
        <_>
          <internalNodes>
            0 -1 121 -1945107408 -44183462 486715871 257291992
            -927557207 -1075838805 1040723644 217325052</internalNodes>
          <leafValues>
            -4.7517007589340210e-01 1.3932079076766968e-01</leafValues></_></weakClassifiers></_></stages>
  <features>
    <_>
      <rect>
        0 0 2 2</rect></_>
    <_>
      <rect>
        0 0 4 1</rect></_>
    <_>
      <rect>
        0 0 5 4</rect></_>
    <_>
      <rect>
        0 1 2 3</rect></_>
    <_>
      <rect>
        0 1 3 5</rect></_>
    <_>
      <rect>
        0 2 2 2</rect></_>
    <_>
      <rect>
        0 2 3 4</rect></_>
    <_>
      <rect>
        0 2 4 2</rect></_>
    <_>
      <rect>
        0 3 1 2</rect></_>
    <_>
      <rect>
        0 3 3 3</rect></_>
    <_>
      <rect>
        0 4 1 1</rect></_>
    <_>
      <rect>
        0 4 4 4</rect></_>
    <_>
      <rect>
        0 5 2 2</rect></_>
    <_>
      <rect>
        0 5 2 3</rect></_>
    <_>
      <rect>
        0 6 1 1</rect></_>
    <_>
      <rect>
        0 6 1 3</rect></_>
    <_>
      <rect>
        0 6 3 2</rect></_>
    <_>
      <rect>
        0 7 1 1</rect></_>
    <_>
      <rect>
        0 7 2 1</rect></_>
    <_>
      <rect>
        0 7 2 2</rect></_>
    <_>
      <rect>
        0 8 2 2</rect></_>
    <_>
      <rect>
        0 9 2 1</rect></_>
    <_>
      <rect>
        0 10 1 1</rect></_>
    <_>
      <rect>
        0 10 1 2</rect></_>
    <_>
      <rect>
        0 10 2 1</rect></_>
    <_>
      <rect>
        0 10 3 2</rect></_>
    <_>
      <rect>
        0 12 1 1</rect></_>
    <_>
      <rect>
        0 12 2 1</rect></_>
    <_>
      <rect>
        0 13 1 1</rect></_>
    <_>
      <rect>
        0 13 2 1</rect></_>
    <_>
      <rect>
        0 13 3 1</rect></_>
    <_>
      <rect>
        1 0 2 1</rect></_>
    <_>
      <rect>
        1 0 2 2</rect></_>
    <_>
      <rect>
        1 0 3 1</rect></_>
    <_>
      <rect>
        1 0 3 3</rect></_>
    <_>
      <rect>
        1 0 5 2</rect></_>
    <_>
      <rect>
        1 0 5 3</rect></_>
    <_>
      <rect>
        1 2 2 2</rect></_>
    <_>
      <rect>
        1 2 2 3</rect></_>
    <_>
      <rect>
        1 3 1 1</rect></_>
    <_>
      <rect>
        1 4 2 3</rect></_>
    <_>
      <rect>
        1 4 3 3</rect></_>
    <_>
      <rect>
        1 5 3 3</rect></_>
    <_>
      <rect>
        1 6 2 2</rect></_>
    <_>
      <rect>
        1 8 3 2</rect></_>
    <_>
      <rect>
        1 9 2 2</rect></_>
    <_>
      <rect>
        1 13 1 1</rect></_>
    <_>
      <rect>
        2 0 2 1</rect></_>
    <_>
      <rect>
        2 0 4 2</rect></_>
    <_>
      <rect>
        2 1 1 1</rect></_>
    <_>
      <rect>
        2 1 2 1</rect></_>
    <_>
      <rect>
        2 1 4 3</rect></_>
    <_>
      <rect>
        2 2 2 2</rect></_>
    <_>
      <rect>
        2 3 3 4</rect></_>
    <_>
      <rect>
        2 4 4 3</rect></_>
    <_>
      <rect>
        2 5 2 2</rect></_>
    <_>
      <rect>
        2 5 3 2</rect></_>
    <_>
      <rect>
        2 5 3 3</rect></_>
    <_>
      <rect>
        2 7 1 1</rect></_>
    <_>
      <rect>
        2 8 2 2</rect></_>
    <_>
      <rect>
        2 11 1 1</rect></_>
    <_>
      <rect>
        2 12 1 1</rect></_>
    <_>
      <rect>
        2 12 3 1</rect></_>
    <_>
      <rect>
        2 13 1 1</rect></_>
    <_>
      <rect>
        3 0 1 1</rect></_>
    <_>
      <rect>
        3 1 4 2</rect></_>
    <_>
      <rect>
        3 3 2 2</rect></_>
    <_>
      <rect>
        3 3 2 3</rect></_>
    <_>
      <rect>
        3 6 1 1</rect></_>
    <_>
      <rect>
        3 7 2 2</rect></_>
    <_>
      <rect>
        3 8 3 2</rect></_>
    <_>
      <rect>
        3 9 1 1</rect></_>
    <_>
      <rect>
        3 10 2 2</rect></_>
    <_>
      <rect>
        3 11 2 1</rect></_>
    <_>
      <rect>
        3 12 1 1</rect></_>
    <_>
      <rect>
        3 13 1 1</rect></_>
    <_>
      <rect>
        4 0 1 1</rect></_>
    <_>
      <rect>
        4 0 4 1</rect></_>
    <_>
      <rect>
        4 3 2 2</rect></_>
    <_>
      <rect>
        4 4 3 2</rect></_>
    <_>
      <rect>
        4 5 3 2</rect></_>
    <_>
      <rect>
        4 6 1 1</rect></_>
    <_>
      <rect>
        4 7 1 1</rect></_>
    <_>
      <rect>
        4 7 3 2</rect></_>
    <_>
      <rect>
        4 7 4 3</rect></_>
    <_>
      <rect>
        4 8 1 1</rect></_>
    <_>
      <rect>
        4 8 3 2</rect></_>
    <_>
      <rect>
        4 9 3 1</rect></_>
    <_>
      <rect>
        4 9 3 2</rect></_>
    <_>
      <rect>
        4 12 1 1</rect></_>
    <_>
      <rect>
        4 13 1 1</rect></_>
    <_>
      <rect>
        5 1 3 3</rect></_>
    <_>
      <rect>
        5 3 2 1</rect></_>
    <_>
      <rect>
        5 3 2 3</rect></_>
    <_>
      <rect>
        5 4 2 2</rect></_>
    <_>
      <rect>
        5 5 1 1</rect></_>
    <_>
      <rect>
        5 5 2 2</rect></_>
    <_>
      <rect>
        5 5 3 3</rect></_>
    <_>
      <rect>
        5 6 1 1</rect></_>
    <_>
      <rect>
        5 6 2 2</rect></_>
    <_>
      <rect>
        5 6 3 2</rect></_>
    <_>
      <rect>
        5 7 1 1</rect></_>
    <_>
      <rect>
        5 8 1 1</rect></_>
    <_>
      <rect>
        5 8 2 2</rect></_>
    <_>
      <rect>
        5 9 1 1</rect></_>
    <_>
      <rect>
        5 9 2 2</rect></_>
    <_>
      <rect>
        5 10 2 2</rect></_>
    <_>
      <rect>
        5 13 1 1</rect></_>
    <_>
      <rect>
        5 13 3 1</rect></_>
    <_>
      <rect>
        6 0 3 1</rect></_>
    <_>
      <rect>
        6 1 3 2</rect></_>
    <_>
      <rect>
        6 2 2 2</rect></_>
    <_>
      <rect>
        6 3 3 2</rect></_>
    <_>
      <rect>
        6 4 1 1</rect></_>
    <_>
      <rect>
        6 4 2 3</rect></_>
    <_>
      <rect>
        6 4 3 3</rect></_>
    <_>
      <rect>
        6 6 1 1</rect></_>
    <_>
      <rect>
        6 8 1 1</rect></_>
    <_>
      <rect>
        6 9 2 2</rect></_>
    <_>
      <rect>
        6 10 2 1</rect></_>
    <_>
      <rect>
        6 12 1 1</rect></_>
    <_>
      <rect>
        7 0 1 1</rect></_>
    <_>
      <rect>
        7 0 3 1</rect></_>
    <_>
      <rect>
        7 1 3 5</rect></_>
    <_>
      <rect>
        7 2 3 3</rect></_>
    <_>
      <rect>
        7 3 1 1</rect></_>
    <_>
      <rect>
        7 4 1 1</rect></_>
    <_>
      <rect>
        7 4 2 2</rect></_>
    <_>
      <rect>
        7 5 1 1</rect></_>
    <_>
      <rect>
        7 5 2 2</rect></_>
    <_>
      <rect>
        7 5 2 3</rect></_>
    <_>
      <rect>
        7 5 3 2</rect></_>
    <_>
      <rect>
        7 7 3 2</rect></_>
    <_>
      <rect>
        7 9 3 2</rect></_>
    <_>
      <rect>
        7 10 2 2</rect></_>
    <_>
      <rect>
        7 11 2 1</rect></_>
    <_>
      <rect>
        7 12 1 1</rect></_>
    <_>
      <rect>
        8 0 2 1</rect></_>
    <_>
      <rect>
        8 0 2 2</rect></_>
    <_>
      <rect>
        8 4 1 1</rect></_>
    <_>
      <rect>
        8 7 1 1</rect></_>
    <_>
      <rect>
        8 8 2 2</rect></_>
    <_>
      <rect>
        8 9 1 1</rect></_>
    <_>
      <rect>
        8 11 1 1</rect></_>
    <_>
      <rect>
        8 13 1 1</rect></_>
    <_>
      <rect>
        9 0 2 3</rect></_>
    <_>
      <rect>
        9 2 2 3</rect></_>
    <_>
      <rect>
        9 4 2 2</rect></_>
    <_>
      <rect>
        9 5 2 2</rect></_>
    <_>
      <rect>
        9 6 1 1</rect></_>
    <_>
      <rect>
        9 7 1 1</rect></_>
    <_>
      <rect>
        9 8 1 1</rect></_>
    <_>
      <rect>
        9 8 2 2</rect></_>
    <_>
      <rect>
        9 9 1 1</rect></_>
    <_>
      <rect>
        9 9 2 1</rect></_>
    <_>
      <rect>
        9 9 2 2</rect></_>
    <_>
      <rect>
        9 10 1 1</rect></_>
    <_>
      <rect>
        9 12 1 1</rect></_>
    <_>
      <rect>
        9 13 2 1</rect></_>
    <_>
      <rect>
        10 0 2 3</rect></_>
    <_>
      <rect>
        10 2 2 2</rect></_>
    <_>
      <rect>
        10 3 2 2</rect></_>
    <_>
      <rect>
        10 4 2 3</rect></_>
    <_>
      <rect>
        10 5 1 1</rect></_>
    <_>
      <rect>
        10 5 1 2</rect></_>
    <_>
      <rect>
        10 5 2 2</rect></_>
    <_>
      <rect>
        10 6 1 1</rect></_>
    <_>
      <rect>
        10 6 2 1</rect></_>
    <_>
      <rect>
        10 6 2 3</rect></_>
    <_>
      <rect>
        10 7 1 1</rect></_>
    <_>
      <rect>
        10 7 2 2</rect></_>
    <_>
      <rect>
        10 10 2 2</rect></_>
    <_>
      <rect>
        10 13 1 1</rect></_>
    <_>
      <rect>
        10 13 2 1</rect></_>
    <_>
      <rect>
        11 0 1 1</rect></_>
    <_>
      <rect>
        11 1 1 1</rect></_>
    <_>
      <rect>
        11 12 1 1</rect></_>
    <_>
      <rect>
        12 3 1 1</rect></_>
    <_>
      <rect>
        12 5 1 1</rect></_>
    <_>
      <rect>
        12 12 1 1</rect></_>
    <_>
      <rect>
        12 13 1 1</rect></_>
    <_>
      <rect>
        13 0 1 3</rect></_>
    <_>
      <rect>
        13 1 1 2</rect></_>
    <_>
      <rect>
        13 3 1 1</rect></_>
    <_>
      <rect>
        13 3 1 2</rect></_>
    <_>
      <rect>
        13 4 1 1</rect></_>
    <_>
      <rect>
        13 5 1 2</rect></_>
    <_>
      <rect>
        13 5 1 3</rect></_>
    <_>
      <rect>
        13 6 1 1</rect></_>
    <_>
      <rect>
        13 7 1 1</rect></_>
    <_>
      <rect>
        13 9 1 1</rect></_>
    <_>
      <rect>
        13 11 1 1</rect></_>
    <_>
      <rect>
        13 12 1 1</rect></_>
    <_>
      <rect>
        13 13 1 1</rect></_></features></cascade>
</opencv_storage>
